34 128
34 -0.005581 -0.191333 0.136774 0.035362 0.077796 -0.042628 0.216693 -0.081299 -0.042182 -0.007137 -0.106829 0.098711 0.086157 -0.147738 -0.018125 -0.184659 -0.081870 -0.142943 -0.091311 -0.013226 0.276281 0.022627 0.246483 0.139737 -0.052642 -0.116223 -0.143792 -0.062146 -0.098761 0.114704 -0.014475 0.172203 -0.103181 -0.074577 -0.127033 -0.069707 0.162125 0.000816 -0.019113 -0.122676 -0.250897 0.190936 0.098652 0.058182 -0.038861 0.191463 0.001322 -0.071763 -0.071018 0.116294 0.057664 0.262314 0.006695 0.081919 -0.137226 -0.144902 -0.105957 -0.015029 -0.004864 0.061927 0.128307 -0.087389 -0.056175 0.060837 0.006775 -0.137357 0.010099 -0.038584 0.019174 -0.049526 0.068843 -0.021454 -0.052633 -0.030565 -0.004048 -0.113889 0.045779 0.001101 -0.092136 -0.003281 -0.044577 -0.049731 0.005382 -0.169132 -0.108040 0.192542 -0.142766 0.039649 -0.090892 0.030965 0.017360 0.167464 0.178054 -0.017606 -0.111003 0.301243 -0.028029 0.052064 0.088938 -0.054256 -0.125405 0.136107 -0.116030 -0.108026 -0.039040 -0.046675 0.266550 0.087677 0.049343 0.007972 -0.029539 -0.039483 -0.084328 -0.091607 -0.032561 0.039470 0.000214 0.200380 -0.135502 0.084644 -0.042036 -0.135738 0.079662 -0.207459 -0.068635 0.186368 -0.029424 0.102892
1 -0.036325 -0.259776 0.119668 -0.049262 0.065379 -0.082689 0.149939 0.021334 0.028106 -0.009347 -0.042944 0.153097 0.074573 -0.142923 0.047246 -0.187061 -0.100572 -0.189473 -0.020170 -0.078117 0.277439 0.008525 0.133081 0.116210 0.008503 -0.073258 -0.101147 0.028916 0.021342 0.062777 -0.025558 0.126026 -0.099301 0.015146 -0.073794 -0.138842 0.099056 0.041801 0.050699 -0.073773 -0.186512 0.032590 0.142153 0.137042 -0.131322 0.160801 -0.008049 -0.120322 -0.010661 0.118478 -0.104727 0.176004 0.033150 0.112138 -0.188925 -0.176081 -0.106859 0.010449 -0.010509 0.014200 0.194226 -0.114323 -0.012741 0.057647 -0.054669 0.030606 0.000952 -0.021101 0.025987 -0.139309 -0.050631 -0.009124 -0.034358 -0.100864 0.099990 -0.048825 0.158374 -0.007454 -0.096600 -0.159048 -0.128976 -0.038124 -0.025134 -0.091948 -0.158250 0.046582 0.038580 -0.043997 0.008623 0.052354 0.114081 0.082644 0.153590 -0.054968 -0.221252 0.177713 -0.055602 -0.122204 0.141636 0.093404 -0.127814 0.076004 -0.148355 -0.095996 -0.070378 -0.044481 0.226943 0.102761 -0.011081 -0.102103 -0.059909 0.017018 -0.058897 -0.043850 -0.106525 0.076307 0.019842 0.233238 -0.206754 -0.007561 -0.035524 -0.098131 0.144672 -0.243176 -0.259878 0.057969 0.041544 0.153897
33 -0.004013 -0.186466 0.130197 0.029027 0.074309 -0.044432 0.197007 -0.067493 -0.032179 -0.006608 -0.092130 0.095567 0.082063 -0.143566 -0.008752 -0.170489 -0.089031 -0.138504 -0.088624 -0.020197 0.275960 0.022959 0.233842 0.135382 -0.053179 -0.106755 -0.144389 -0.054106 -0.088070 0.110601 -0.020421 0.171883 -0.101915 -0.065136 -0.125183 -0.078296 0.150413 -0.000227 -0.017846 -0.113475 -0.237538 0.174813 0.098838 0.058724 -0.040639 0.189892 -0.006378 -0.072146 -0.072593 0.109239 0.044403 0.251234 0.009462 0.077084 -0.138287 -0.138420 -0.106358 -0.011802 -0.002308 0.058848 0.136586 -0.094177 -0.050129 0.058213 0.008092 -0.123833 0.015764 -0.036474 0.019322 -0.048380 0.067027 -0.020598 -0.042785 -0.036071 0.000224 -0.105802 0.057948 -0.002748 -0.090446 -0.013241 -0.040675 -0.050522 -0.001265 -0.164439 -0.114468 0.181543 -0.131041 0.031279 -0.080441 0.031950 0.029796 0.161041 0.170535 -0.023042 -0.112827 0.287223 -0.031254 0.032060 0.097349 -0.042090 -0.127386 0.124427 -0.114944 -0.099096 -0.037077 -0.052750 0.258108 0.090308 0.047813 -0.005592 -0.035655 -0.037116 -0.080995 -0.092963 -0.035114 0.042339 -0.002480 0.190865 -0.140906 0.070826 -0.036959 -0.129100 0.081633 -0.203239 -0.071963 0.169498 -0.027524 0.098659
3 -0.023211 -0.224422 0.134257 -0.024359 0.068509 -0.067159 0.168094 -0.021685 -0.012397 -0.007475 -0.061646 0.123201 0.078113 -0.147167 0.019905 -0.187209 -0.096040 -0.170185 -0.044446 -0.058582 0.279969 0.020249 0.174122 0.133780 -0.017983 -0.079316 -0.111192 0.005023 -0.015130 0.083955 -0.028476 0.136464 -0.112932 -0.011412 -0.095983 -0.116281 0.122126 0.021963 0.031664 -0.088224 -0.202503 0.084934 0.122469 0.113478 -0.086240 0.178753 -0.012898 -0.103541 -0.046205 0.116937 -0.037866 0.197720 0.022870 0.104199 -0.177609 -0.162382 -0.106547 0.001390 -0.014022 0.038631 0.166750 -0.101608 -0.029901 0.052958 -0.025254 -0.031224 0.009629 -0.026807 0.025521 -0.100735 -0.000748 -0.014364 -0.036248 -0.076239 0.061855 -0.077019 0.125497 -0.007962 -0.089512 -0.096320 -0.092649 -0.047523 -0.021581 -0.125760 -0.139067 0.111098 -0.033134 -0.016107 -0.031611 0.042149 0.073876 0.115955 0.151920 -0.052197 -0.185760 0.226645 -0.054053 -0.052526 0.122744 0.036864 -0.131718 0.095708 -0.128509 -0.095310 -0.054077 -0.047720 0.237783 0.097490 0.016560 -0.066914 -0.049254 -0.009368 -0.069152 -0.061065 -0.080662 0.062746 0.006063 0.219829 -0.178257 0.023948 -0.037612 -0.111048 0.109200 -0.220886 -0.174084 0.106042 0.017987 0.128673
2 -0.016301 -0.227854 0.121386 -0.030503 0.061662 -0.067452 0.158911 -0.005765 -0.005146 -0.006318 -0.059484 0.132151 0.081479 -0.141946 0.027606 -0.186153 -0.097660 -0.164930 -0.037389 -0.060813 0.271668 0.015688 0.160670 0.121915 -0.013881 -0.074648 -0.106817 0.009638 -0.005266 0.075644 -0.021945 0.126424 -0.106541 -0.003024 -0.085892 -0.112667 0.111171 0.021762 0.035109 -0.084724 -0.188270 0.074338 0.122773 0.113094 -0.097234 0.167421 -0.012950 -0.102938 -0.028178 0.107521 -0.054793 0.179797 0.029839 0.104878 -0.171889 -0.156679 -0.097628 0.005833 -0.012422 0.031510 0.165162 -0.097283 -0.019778 0.046313 -0.033445 -0.007240 0.001770 -0.026725 0.019446 -0.108269 -0.020382 -0.010294 -0.033126 -0.083397 0.067611 -0.061133 0.126562 -0.009706 -0.090069 -0.108318 -0.102167 -0.045610 -0.023838 -0.104051 -0.135206 0.090327 -0.011013 -0.021682 -0.014461 0.043212 0.084627 0.101219 0.145783 -0.056657 -0.188581 0.203636 -0.050900 -0.072505 0.116844 0.052482 -0.118739 0.083742 -0.123741 -0.094770 -0.059779 -0.048554 0.228927 0.097971 0.002006 -0.069989 -0.053883 0.001360 -0.062691 -0.055280 -0.086727 0.059825 0.011838 0.210378 -0.181040 0.014033 -0.036447 -0.102943 0.121288 -0.226585 -0.188555 0.092368 0.029071 0.132363
32 -0.006070 -0.192604 0.127818 0.023188 0.071268 -0.044849 0.204383 -0.073627 -0.039305 -0.006061 -0.097888 0.099547 0.085952 -0.145203 -0.013353 -0.175924 -0.086783 -0.148679 -0.088787 -0.017904 0.280083 0.026266 0.234100 0.138804 -0.054726 -0.107879 -0.146610 -0.050798 -0.086566 0.110086 -0.018832 0.168337 -0.098019 -0.069064 -0.128706 -0.080120 0.159327 0.006030 -0.014662 -0.123409 -0.244364 0.170981 0.095920 0.065333 -0.047201 0.193580 -0.005176 -0.069182 -0.070907 0.107425 0.041682 0.252712 0.004938 0.082597 -0.141678 -0.144687 -0.105450 -0.014012 -0.010077 0.058231 0.138853 -0.092310 -0.048956 0.065434 -0.001061 -0.121305 0.006729 -0.030743 0.017957 -0.058386 0.055913 -0.013277 -0.047089 -0.043337 0.005911 -0.108075 0.056742 0.001723 -0.094844 -0.015462 -0.051101 -0.051289 0.004017 -0.162162 -0.115218 0.184875 -0.127311 0.031001 -0.080163 0.028847 0.031239 0.159710 0.178299 -0.025859 -0.114964 0.285578 -0.029499 0.035028 0.091881 -0.046456 -0.125547 0.126932 -0.121325 -0.102448 -0.034020 -0.040849 0.264444 0.089977 0.043852 -0.002423 -0.033595 -0.040047 -0.077876 -0.082365 -0.036375 0.040292 -0.003917 0.194960 -0.130913 0.068686 -0.040535 -0.132204 0.075385 -0.201366 -0.069965 0.167015 -0.028171 0.102697
4 -0.021316 -0.219002 0.121350 -0.026997 0.066064 -0.068977 0.150740 -0.004944 0.000631 -0.007281 -0.051541 0.132039 0.079986 -0.142017 0.027215 -0.182374 -0.095666 -0.166790 -0.035611 -0.057625 0.270426 0.014474 0.152341 0.118417 -0.010700 -0.072362 -0.105937 0.011860 -0.003473 0.072802 -0.027467 0.126016 -0.105155 -0.004460 -0.085484 -0.115252 0.114183 0.027446 0.036031 -0.078020 -0.188322 0.069843 0.126364 0.117959 -0.090094 0.164917 -0.012761 -0.107314 -0.036244 0.106356 -0.051499 0.178455 0.029836 0.103339 -0.173543 -0.155199 -0.099868 0.002497 -0.006688 0.025531 0.172533 -0.102262 -0.022290 0.047191 -0.026149 -0.008549 -0.000481 -0.025509 0.025903 -0.105678 -0.014962 -0.010809 -0.029600 -0.084545 0.070696 -0.064552 0.131255 -0.004419 -0.091345 -0.101823 -0.095260 -0.049047 -0.022990 -0.107029 -0.136596 0.088168 -0.007295 -0.026484 -0.016215 0.045761 0.078858 0.098756 0.139207 -0.054323 -0.186919 0.204859 -0.054624 -0.072274 0.119072 0.049628 -0.125741 0.085482 -0.120785 -0.087284 -0.062600 -0.048168 0.220291 0.094925 0.002963 -0.074599 -0.045633 -0.003520 -0.064092 -0.054601 -0.083858 0.064692 0.007107 0.211606 -0.179976 0.016495 -0.031579 -0.097911 0.111828 -0.217186 -0.187981 0.088308 0.029454 0.130133
24 0.003434 -0.179771 0.137904 0.034052 0.071376 -0.041701 0.206228 -0.081957 -0.045660 -0.002921 -0.100911 0.088880 0.091863 -0.148507 -0.020830 -0.180064 -0.086397 -0.140352 -0.090103 -0.014444 0.279106 0.026212 0.245773 0.146335 -0.057889 -0.106165 -0.148054 -0.061020 -0.099806 0.119492 -0.023765 0.174410 -0.106616 -0.078643 -0.130258 -0.072102 0.161998 -0.007013 -0.018171 -0.129274 -0.242746 0.189282 0.089874 0.058729 -0.031387 0.197413 -0.011857 -0.060628 -0.074628 0.107778 0.062429 0.257572 0.001808 0.083049 -0.131219 -0.131590 -0.099781 -0.013852 -0.010396 0.063852 0.127488 -0.089399 -0.049450 0.056817 0.006039 -0.138033 0.009569 -0.032886 0.012585 -0.040901 0.071927 -0.017672 -0.049953 -0.033211 -0.007115 -0.116078 0.041653 -0.005098 -0.090958 0.004965 -0.035631 -0.051409 0.002938 -0.164865 -0.109709 0.193202 -0.150935 0.042732 -0.086932 0.029660 0.017142 0.165839 0.174486 -0.025218 -0.101614 0.300118 -0.025796 0.053913 0.086917 -0.059599 -0.127036 0.137692 -0.106875 -0.099563 -0.033883 -0.043353 0.265716 0.090854 0.051903 0.010563 -0.029951 -0.047461 -0.082941 -0.089688 -0.036466 0.032704 -0.005549 0.186999 -0.127419 0.081641 -0.038627 -0.131525 0.067783 -0.197076 -0.043478 0.183530 -0.030748 0.095660
14 -0.026141 -0.224914 0.119401 -0.032519 0.063312 -0.065221 0.147702 -0.004439 0.004419 -0.004660 -0.053754 0.131857 0.069931 -0.133380 0.031197 -0.172080 -0.091219 -0.164700 -0.033072 -0.063202 0.261499 0.016150 0.145937 0.115952 -0.007853 -0.070629 -0.097348 0.014500 -0.006077 0.071924 -0.021297 0.123665 -0.098541 0.000237 -0.075633 -0.115136 0.104630 0.029416 0.032541 -0.075778 -0.186266 0.062995 0.124065 0.115396 -0.097513 0.160892 -0.006027 -0.100677 -0.028121 0.111174 -0.062465 0.175387 0.026079 0.099104 -0.165229 -0.157885 -0.102932 0.006621 -0.010055 0.020852 0.166869 -0.101309 -0.017691 0.046410 -0.035645 -0.002769 0.004502 -0.026762 0.024907 -0.110410 -0.022935 -0.008086 -0.036199 -0.078027 0.076552 -0.057084 0.129454 -0.006333 -0.089662 -0.114723 -0.101210 -0.039150 -0.017983 -0.097739 -0.140162 0.080584 -0.001997 -0.027573 -0.012172 0.043210 0.083166 0.092782 0.142233 -0.048467 -0.187010 0.195427 -0.050513 -0.073529 0.122701 0.056513 -0.121262 0.080280 -0.127546 -0.086940 -0.062452 -0.043755 0.218201 0.094266 -0.000653 -0.076218 -0.051682 0.000192 -0.063943 -0.050745 -0.079893 0.063214 0.007113 0.209050 -0.179575 0.012870 -0.033288 -0.100053 0.119443 -0.218885 -0.195303 0.079389 0.024542 0.130870
9 -0.016332 -0.204068 0.116096 -0.002202 0.064355 -0.053885 0.171144 -0.032161 -0.006372 -0.006308 -0.068921 0.118922 0.075931 -0.139514 0.010965 -0.173119 -0.091976 -0.151633 -0.060886 -0.039409 0.259197 0.019851 0.188405 0.119937 -0.025989 -0.086287 -0.123002 -0.024860 -0.046022 0.090105 -0.019483 0.148401 -0.098924 -0.036959 -0.093376 -0.097634 0.130384 0.016846 0.005963 -0.092051 -0.211704 0.111396 0.110598 0.090815 -0.075119 0.169438 -0.004953 -0.087391 -0.048356 0.103723 -0.014863 0.210392 0.014200 0.087477 -0.143671 -0.149321 -0.103564 -0.005357 -0.006571 0.034064 0.151122 -0.095558 -0.033413 0.056169 -0.015059 -0.061324 0.008322 -0.027001 0.020584 -0.081744 0.019273 -0.009588 -0.037597 -0.062388 0.044452 -0.082151 0.090668 0.000461 -0.093406 -0.062940 -0.070033 -0.041849 -0.012302 -0.130937 -0.128934 0.122535 -0.059816 0.002542 -0.046937 0.039132 0.059200 0.121848 0.161920 -0.029852 -0.152351 0.230741 -0.034316 -0.023979 0.107522 0.012080 -0.124722 0.099390 -0.126600 -0.094941 -0.049098 -0.046091 0.231783 0.092417 0.019398 -0.044208 -0.039401 -0.014882 -0.067736 -0.071795 -0.060576 0.051761 -0.000111 0.203191 -0.158748 0.044478 -0.037409 -0.114630 0.100198 -0.208818 -0.141945 0.123471 0.001374 0.119016
30 -0.000730 -0.199496 0.127604 0.018368 0.065946 -0.048274 0.196881 -0.061907 -0.032059 -0.004220 -0.092696 0.101121 0.085127 -0.146566 -0.007854 -0.181844 -0.087562 -0.150112 -0.080725 -0.024586 0.280804 0.019654 0.226306 0.136351 -0.042562 -0.105053 -0.134645 -0.041727 -0.077555 0.108790 -0.020839 0.159044 -0.104479 -0.060562 -0.121563 -0.082684 0.146435 0.006922 -0.004351 -0.120153 -0.230652 0.156343 0.103158 0.076985 -0.052036 0.191405 -0.008583 -0.079208 -0.062528 0.113578 0.025652 0.242572 0.012844 0.082529 -0.142912 -0.142510 -0.105040 -0.008212 -0.006509 0.055580 0.142356 -0.095512 -0.039079 0.056310 -0.000819 -0.102159 0.005396 -0.033594 0.018448 -0.065530 0.047076 -0.016108 -0.045193 -0.048002 0.017368 -0.104523 0.068921 -0.000904 -0.091784 -0.028541 -0.062227 -0.051070 -0.008080 -0.150132 -0.118194 0.166810 -0.112850 0.022379 -0.071688 0.035157 0.040922 0.143888 0.170171 -0.028607 -0.126104 0.274638 -0.036291 0.018216 0.100354 -0.027302 -0.122805 0.122647 -0.116743 -0.103328 -0.043380 -0.048080 0.258993 0.095034 0.036149 -0.014989 -0.040309 -0.036220 -0.081507 -0.084867 -0.045477 0.040278 -0.003259 0.195686 -0.147680 0.064075 -0.042323 -0.122506 0.087735 -0.211324 -0.093819 0.162963 -0.010813 0.110114
28 -0.008358 -0.196764 0.129279 0.010876 0.066664 -0.047490 0.187575 -0.055426 -0.030936 -0.004924 -0.083403 0.104806 0.084222 -0.138438 -0.006101 -0.175416 -0.089526 -0.152465 -0.070751 -0.026872 0.271020 0.019954 0.213888 0.132989 -0.042819 -0.094831 -0.137332 -0.036484 -0.063713 0.102607 -0.019803 0.158997 -0.098412 -0.052969 -0.114204 -0.090941 0.146767 0.009180 -0.001474 -0.111188 -0.225784 0.141829 0.102214 0.078778 -0.058954 0.184016 -0.012813 -0.076614 -0.063432 0.106642 0.015128 0.231615 0.013331 0.082886 -0.140188 -0.142277 -0.102874 -0.011745 -0.012814 0.050591 0.142956 -0.095563 -0.036138 0.058665 -0.004747 -0.093284 0.003712 -0.026796 0.014838 -0.069803 0.036213 -0.010594 -0.047613 -0.055688 0.022309 -0.096148 0.071342 0.000708 -0.095657 -0.033062 -0.061445 -0.051404 -0.002143 -0.143460 -0.120159 0.160678 -0.096688 0.020043 -0.064626 0.036228 0.043140 0.139414 0.163714 -0.033941 -0.127528 0.260808 -0.033893 0.010520 0.099475 -0.024211 -0.126867 0.122071 -0.120168 -0.098495 -0.039510 -0.040909 0.253011 0.094023 0.037459 -0.022362 -0.035678 -0.027618 -0.078242 -0.076530 -0.048464 0.037728 -0.004504 0.188564 -0.141457 0.051497 -0.036878 -0.118394 0.084024 -0.200440 -0.099361 0.144269 -0.010578 0.106472
7 -0.029191 -0.250767 0.104697 -0.043281 0.055208 -0.073337 0.145565 0.026551 0.036793 -0.008836 -0.037325 0.158312 0.070741 -0.143363 0.056441 -0.180763 -0.099717 -0.186495 -0.028251 -0.078894 0.265432 0.003451 0.124288 0.111681 0.021107 -0.073895 -0.104005 0.022291 0.018455 0.058727 -0.018394 0.121492 -0.096357 0.010032 -0.065601 -0.135242 0.096478 0.042259 0.042055 -0.067229 -0.185357 0.032269 0.140531 0.137828 -0.133744 0.159378 0.001678 -0.118635 -0.006993 0.112853 -0.107128 0.169644 0.032162 0.105455 -0.176836 -0.171802 -0.106326 0.002973 0.000539 0.009580 0.192705 -0.107660 -0.003549 0.060163 -0.053498 0.036029 0.000887 -0.014099 0.031601 -0.142436 -0.054279 0.001316 -0.044160 -0.099598 0.108966 -0.039621 0.154710 -0.002942 -0.098001 -0.159071 -0.123436 -0.022831 -0.024226 -0.075162 -0.159074 0.034819 0.044190 -0.042253 0.006377 0.056612 0.117137 0.076110 0.154899 -0.049247 -0.219880 0.173847 -0.044427 -0.126337 0.134439 0.096966 -0.123018 0.069490 -0.154431 -0.091632 -0.075092 -0.048729 0.206263 0.094538 -0.007041 -0.102318 -0.052822 0.027369 -0.060089 -0.049436 -0.103289 0.078873 0.013835 0.221890 -0.202533 -0.001467 -0.036017 -0.095149 0.158541 -0.243501 -0.271274 0.050704 0.047925 0.161975
8 -0.025293 -0.248912 0.127593 -0.045654 0.060232 -0.076568 0.151976 0.007758 0.008211 -0.002666 -0.050000 0.144539 0.079406 -0.147269 0.043309 -0.195917 -0.101039 -0.179425 -0.020740 -0.071359 0.281596 0.013576 0.142056 0.119431 -0.001396 -0.064246 -0.098865 0.031010 0.012765 0.070832 -0.029502 0.124978 -0.109315 0.013748 -0.079511 -0.131360 0.108013 0.031709 0.053929 -0.073118 -0.186438 0.047990 0.131541 0.137137 -0.110757 0.174431 -0.018713 -0.116934 -0.024874 0.116561 -0.087825 0.171280 0.040040 0.115635 -0.192399 -0.168849 -0.107964 0.004717 -0.014654 0.019561 0.184787 -0.111110 -0.014712 0.048432 -0.039968 0.016147 0.003171 -0.026870 0.027028 -0.127843 -0.042417 -0.011863 -0.033417 -0.098170 0.089864 -0.054306 0.148911 -0.009929 -0.093655 -0.137097 -0.115151 -0.049830 -0.032371 -0.096539 -0.155418 0.071113 0.022184 -0.039624 -0.000688 0.047629 0.103514 0.085055 0.143619 -0.065451 -0.214966 0.186740 -0.060346 -0.106294 0.127818 0.075008 -0.123697 0.073819 -0.136627 -0.092120 -0.063518 -0.053216 0.226049 0.095949 -0.007398 -0.097217 -0.061101 0.009138 -0.059967 -0.047346 -0.105439 0.072083 0.009625 0.220508 -0.199294 0.000095 -0.035792 -0.096500 0.132179 -0.224538 -0.219431 0.064232 0.043317 0.137486
6 -0.035240 -0.262213 0.108992 -0.040867 0.062204 -0.077580 0.149993 0.032276 0.039146 -0.009479 -0.032546 0.164309 0.066495 -0.142722 0.060735 -0.185048 -0.105052 -0.197526 -0.025603 -0.085252 0.271432 0.002626 0.124060 0.107706 0.024025 -0.077862 -0.102344 0.021781 0.023270 0.063183 -0.020564 0.117119 -0.092348 0.014005 -0.062548 -0.140876 0.101115 0.053506 0.039712 -0.069345 -0.187304 0.030466 0.149492 0.136850 -0.144421 0.161295 0.006372 -0.126973 -0.005413 0.119480 -0.110758 0.172730 0.029346 0.103486 -0.175672 -0.182961 -0.110695 0.005129 0.002426 -0.000065 0.203025 -0.110827 -0.004109 0.061264 -0.054886 0.036269 -0.003499 -0.017526 0.030848 -0.150099 -0.053214 -0.002858 -0.043260 -0.101917 0.117486 -0.040981 0.166455 -0.001712 -0.103192 -0.165267 -0.133423 -0.021242 -0.021337 -0.078171 -0.160464 0.029994 0.058126 -0.048410 0.009871 0.055918 0.121274 0.077511 0.158849 -0.043615 -0.227963 0.174359 -0.047891 -0.136074 0.148861 0.101626 -0.122768 0.067749 -0.157691 -0.094488 -0.080697 -0.044939 0.214143 0.100641 -0.009977 -0.110408 -0.053829 0.028217 -0.061221 -0.046506 -0.101783 0.088327 0.017477 0.230853 -0.206437 -0.009530 -0.034250 -0.103384 0.165542 -0.259663 -0.288439 0.052339 0.049474 0.162142
26 -0.005583 -0.202630 0.125184 0.002722 0.068922 -0.057794 0.189823 -0.051689 -0.025514 -0.008361 -0.083987 0.104058 0.088644 -0.144694 -0.000398 -0.174143 -0.088585 -0.158387 -0.072069 -0.030800 0.284043 0.019679 0.216254 0.135991 -0.039217 -0.101876 -0.137349 -0.037515 -0.062319 0.103808 -0.014103 0.156888 -0.097815 -0.057041 -0.118092 -0.097040 0.144596 0.011821 -0.001812 -0.113502 -0.224700 0.130812 0.100913 0.079457 -0.068446 0.191041 -0.011487 -0.080156 -0.054751 0.113639 0.008109 0.232794 0.011267 0.084600 -0.148662 -0.146790 -0.097471 -0.008001 -0.014171 0.050020 0.152209 -0.097548 -0.036065 0.063555 -0.012565 -0.080862 0.004795 -0.033115 0.018978 -0.074923 0.028734 -0.011943 -0.048739 -0.057954 0.035702 -0.097464 0.072548 0.000375 -0.096339 -0.051921 -0.075271 -0.043320 -0.003857 -0.139098 -0.120634 0.149066 -0.089526 0.011626 -0.060153 0.036796 0.052793 0.134657 0.174174 -0.027951 -0.134631 0.254166 -0.035215 -0.002292 0.106497 -0.013540 -0.122826 0.115639 -0.122693 -0.092642 -0.042562 -0.041572 0.254161 0.095641 0.038264 -0.022908 -0.042282 -0.024938 -0.072520 -0.068735 -0.054214 0.041527 0.003296 0.190662 -0.140878 0.041566 -0.038014 -0.118788 0.088271 -0.212477 -0.114394 0.145108 -0.010217 0.106804
25 -0.011512 -0.205543 0.117569 -0.002426 0.060319 -0.056380 0.179430 -0.048575 -0.016564 -0.007353 -0.081036 0.106198 0.085357 -0.137576 0.003189 -0.178647 -0.086361 -0.159044 -0.064045 -0.030484 0.279492 0.016882 0.206237 0.133980 -0.034065 -0.100577 -0.129754 -0.031662 -0.058353 0.099040 -0.013382 0.150729 -0.094144 -0.052640 -0.114652 -0.093340 0.135047 0.018446 0.000279 -0.111284 -0.222215 0.126926 0.100752 0.080238 -0.068595 0.190284 -0.007212 -0.076704 -0.045648 0.107561 -0.006749 0.225760 0.016408 0.088777 -0.152729 -0.146445 -0.093845 -0.013887 -0.014651 0.051337 0.150367 -0.092349 -0.029932 0.059575 -0.020394 -0.072758 -0.000415 -0.026509 0.014095 -0.079811 0.019615 -0.012027 -0.044854 -0.057996 0.038312 -0.093022 0.074888 0.002886 -0.092991 -0.058189 -0.077216 -0.045330 -0.005666 -0.135063 -0.123702 0.137251 -0.076764 0.002739 -0.057917 0.033212 0.054761 0.126034 0.172530 -0.036647 -0.140090 0.246316 -0.034432 -0.011529 0.103564 -0.003793 -0.124226 0.112153 -0.127354 -0.090234 -0.041577 -0.041583 0.246041 0.094844 0.033999 -0.031824 -0.041382 -0.020391 -0.069264 -0.068707 -0.062331 0.040596 0.004821 0.188015 -0.143622 0.037729 -0.035834 -0.109351 0.090511 -0.208363 -0.121038 0.135570 -0.008474 0.109061
29 -0.011453 -0.198765 0.120385 -0.002165 0.068100 -0.055899 0.175184 -0.046364 -0.020634 -0.004375 -0.074440 0.111546 0.078105 -0.140517 0.003981 -0.174734 -0.090888 -0.152647 -0.059693 -0.034893 0.269462 0.017655 0.191108 0.126540 -0.036604 -0.091256 -0.120946 -0.025699 -0.046576 0.095038 -0.016405 0.143456 -0.098415 -0.039239 -0.108519 -0.091587 0.135172 0.014181 0.009432 -0.103208 -0.207777 0.124857 0.101921 0.081514 -0.061611 0.181303 -0.010903 -0.084694 -0.054222 0.107537 -0.002265 0.212747 0.014589 0.088574 -0.154682 -0.140367 -0.094841 -0.003233 -0.007643 0.045652 0.147012 -0.095825 -0.038792 0.052908 -0.014120 -0.071453 0.002174 -0.032543 0.023216 -0.071628 0.021309 -0.014344 -0.041789 -0.054186 0.035097 -0.083062 0.087720 -0.001084 -0.086859 -0.054264 -0.074045 -0.044806 -0.007307 -0.136515 -0.120091 0.137836 -0.071642 0.001195 -0.052047 0.031888 0.052544 0.124098 0.155539 -0.034979 -0.139646 0.244444 -0.042832 -0.008087 0.101610 -0.004772 -0.123545 0.107832 -0.116901 -0.091987 -0.044240 -0.045848 0.234455 0.087629 0.027352 -0.032230 -0.037533 -0.021986 -0.073025 -0.071244 -0.059609 0.042845 -0.000466 0.190139 -0.146133 0.043130 -0.037487 -0.112910 0.087738 -0.204708 -0.116478 0.132659 -0.003460 0.105870
11 -0.042699 -0.267295 0.106039 -0.054128 0.059654 -0.083595 0.133297 0.044343 0.048420 -0.012766 -0.026220 0.169403 0.063770 -0.135705 0.068869 -0.186848 -0.106335 -0.198723 -0.015313 -0.092956 0.271911 0.002349 0.110771 0.107541 0.026201 -0.071509 -0.098209 0.037337 0.034994 0.050990 -0.020297 0.111919 -0.090863 0.022181 -0.053964 -0.142891 0.095503 0.057669 0.052695 -0.056029 -0.172118 0.010908 0.152603 0.148255 -0.150951 0.158056 0.005327 -0.124446 -0.001819 0.115918 -0.128445 0.156907 0.035603 0.107045 -0.183659 -0.185113 -0.107467 0.011617 -0.006473 -0.000821 0.204895 -0.115768 0.005612 0.062194 -0.066647 0.061554 -0.007844 -0.016028 0.035782 -0.160834 -0.070598 -0.000401 -0.042110 -0.114421 0.131422 -0.031516 0.177565 -0.008373 -0.104877 -0.184402 -0.139303 -0.020226 -0.028053 -0.070977 -0.172648 0.016428 0.080289 -0.057622 0.024363 0.057963 0.128224 0.062114 0.154168 -0.049924 -0.238530 0.155346 -0.050612 -0.152514 0.149266 0.123842 -0.122170 0.065974 -0.162413 -0.091352 -0.083021 -0.046803 0.212460 0.096423 -0.017780 -0.124800 -0.059382 0.035744 -0.061013 -0.043093 -0.113667 0.086066 0.014737 0.238554 -0.215141 -0.021493 -0.033160 -0.099876 0.173552 -0.263328 -0.306772 0.033518 0.052818 0.171809
5 -0.032409 -0.260574 0.110657 -0.044645 0.064962 -0.079319 0.152729 0.020102 0.033246 -0.011786 -0.035937 0.160214 0.069169 -0.141625 0.054548 -0.189580 -0.104124 -0.191064 -0.026128 -0.077403 0.274364 0.010073 0.126581 0.117721 0.015836 -0.076242 -0.103346 0.022173 0.019165 0.062793 -0.025238 0.122338 -0.100929 0.016677 -0.065143 -0.139853 0.100080 0.044289 0.044710 -0.068064 -0.182064 0.032681 0.140104 0.137034 -0.135350 0.162642 -0.002709 -0.122303 -0.011692 0.114711 -0.105594 0.174497 0.036676 0.103099 -0.179467 -0.179446 -0.105833 0.005741 -0.002284 0.006023 0.192065 -0.112726 -0.005229 0.059839 -0.055550 0.033511 0.005070 -0.020539 0.031967 -0.141912 -0.053123 -0.003865 -0.041853 -0.104182 0.106430 -0.046751 0.156663 -0.008926 -0.100720 -0.162071 -0.129138 -0.029791 -0.026260 -0.084402 -0.161075 0.039781 0.045130 -0.039974 0.008508 0.054160 0.117043 0.079160 0.155555 -0.051306 -0.226267 0.178434 -0.053753 -0.124880 0.142070 0.099712 -0.126598 0.069622 -0.150400 -0.096261 -0.076680 -0.048323 0.214224 0.096940 -0.012273 -0.103995 -0.060185 0.021717 -0.057585 -0.049505 -0.104371 0.081831 0.020260 0.226007 -0.198620 -0.005155 -0.034789 -0.095920 0.152518 -0.245664 -0.267462 0.055366 0.041942 0.159109
31 -0.008659 -0.201956 0.131367 0.007640 0.068433 -0.055520 0.184723 -0.051948 -0.025627 -0.005340 -0.077724 0.114950 0.085235 -0.146075 0.002756 -0.182021 -0.096195 -0.151517 -0.067075 -0.036010 0.276465 0.018701 0.204012 0.136801 -0.034771 -0.094447 -0.126767 -0.027364 -0.058637 0.096973 -0.023719 0.158440 -0.108570 -0.042449 -0.107039 -0.088643 0.137400 0.008536 0.007337 -0.109947 -0.222020 0.139540 0.108990 0.081216 -0.062988 0.183075 -0.010235 -0.086722 -0.057179 0.113334 0.004120 0.230138 0.015233 0.087296 -0.149649 -0.150450 -0.102518 -0.008375 -0.010702 0.043708 0.151885 -0.096591 -0.041927 0.051133 -0.012226 -0.081639 0.004622 -0.033304 0.018500 -0.073062 0.033505 -0.018349 -0.041520 -0.055364 0.031249 -0.092466 0.088906 -0.004945 -0.088959 -0.047222 -0.065409 -0.048735 -0.010141 -0.145326 -0.124094 0.147252 -0.090001 0.009032 -0.057333 0.034210 0.044739 0.142009 0.167785 -0.034925 -0.148804 0.259754 -0.039922 -0.004168 0.104458 -0.003461 -0.130093 0.113550 -0.119394 -0.103180 -0.049427 -0.048471 0.249895 0.095890 0.032770 -0.028883 -0.043703 -0.027770 -0.079369 -0.080939 -0.054615 0.052248 -0.001387 0.208255 -0.160674 0.055615 -0.040780 -0.122972 0.093946 -0.219040 -0.121274 0.146205 -0.009277 0.116218
20 -0.017857 -0.220871 0.122308 -0.011593 0.062621 -0.064652 0.172797 -0.019768 -0.007463 -0.008026 -0.067047 0.122938 0.081832 -0.141519 0.018908 -0.180747 -0.097450 -0.162822 -0.052904 -0.053780 0.273238 0.014076 0.178743 0.125063 -0.015955 -0.081251 -0.113215 -0.009950 -0.027849 0.080474 -0.026315 0.137979 -0.100040 -0.023902 -0.089814 -0.105659 0.126046 0.018832 0.016495 -0.095345 -0.208237 0.094746 0.115464 0.101706 -0.083600 0.172797 -0.003439 -0.095139 -0.038814 0.108313 -0.035420 0.203116 0.023248 0.090153 -0.158686 -0.155358 -0.104032 -0.004775 -0.009117 0.034020 0.166542 -0.097959 -0.024598 0.055655 -0.024644 -0.039562 0.005694 -0.023967 0.020467 -0.092844 0.000565 -0.009824 -0.041422 -0.072769 0.055358 -0.072700 0.112179 -0.006199 -0.092151 -0.083995 -0.086055 -0.045035 -0.014407 -0.123148 -0.133225 0.111855 -0.041083 -0.006743 -0.035524 0.044449 0.073247 0.115954 0.158008 -0.041722 -0.169465 0.225731 -0.040434 -0.047563 0.114818 0.032451 -0.126166 0.093797 -0.131482 -0.092898 -0.056223 -0.043868 0.232658 0.094055 0.018048 -0.052424 -0.048452 -0.006452 -0.068361 -0.063096 -0.073307 0.058029 0.009964 0.211007 -0.169830 0.031323 -0.036582 -0.106983 0.113388 -0.224490 -0.166970 0.111425 0.009627 0.128820
23 -0.009001 -0.196217 0.120774 0.002057 0.065696 -0.050317 0.173743 -0.036398 -0.016943 -0.007476 -0.075179 0.108536 0.080063 -0.141866 0.004151 -0.170708 -0.091958 -0.146267 -0.060848 -0.035366 0.266483 0.018379 0.191110 0.131216 -0.031179 -0.088364 -0.126625 -0.027339 -0.053605 0.094710 -0.024202 0.148714 -0.104103 -0.038255 -0.105901 -0.095577 0.131466 0.006171 0.005212 -0.098517 -0.211607 0.124032 0.108561 0.087429 -0.060619 0.175475 -0.012316 -0.080902 -0.054678 0.106919 0.000318 0.212886 0.018782 0.085756 -0.149386 -0.148382 -0.103229 -0.004476 -0.007044 0.039164 0.148210 -0.095569 -0.031686 0.051484 -0.007909 -0.069095 0.011537 -0.026655 0.021850 -0.070372 0.027279 -0.014694 -0.034172 -0.057804 0.029232 -0.086049 0.091583 -0.005203 -0.085649 -0.054109 -0.063846 -0.048989 -0.008456 -0.136506 -0.127159 0.139153 -0.077579 0.007463 -0.052561 0.036051 0.053817 0.131513 0.154020 -0.037065 -0.151894 0.243073 -0.037489 -0.016009 0.104645 0.006061 -0.124347 0.104419 -0.113291 -0.098924 -0.048617 -0.053000 0.237437 0.090811 0.028600 -0.034259 -0.046549 -0.023871 -0.074089 -0.077332 -0.060689 0.049553 -0.000100 0.201010 -0.156819 0.047071 -0.034767 -0.112544 0.094219 -0.212683 -0.122761 0.129673 -0.000725 0.113945
15 -0.011681 -0.195053 0.130982 0.009122 0.069717 -0.044121 0.190021 -0.061638 -0.028446 -0.006898 -0.084075 0.102726 0.082480 -0.140479 -0.001136 -0.177110 -0.092989 -0.148333 -0.077287 -0.033146 0.276038 0.024549 0.215340 0.135566 -0.046520 -0.098047 -0.135600 -0.039371 -0.069866 0.098744 -0.023336 0.162202 -0.100095 -0.054217 -0.113339 -0.085030 0.140884 0.004561 0.000413 -0.108176 -0.228962 0.150157 0.100634 0.073483 -0.049047 0.188241 -0.012467 -0.076808 -0.062981 0.107664 0.021933 0.234281 0.011877 0.086653 -0.147040 -0.147162 -0.106850 -0.013555 -0.006989 0.054391 0.144532 -0.089504 -0.042125 0.051158 -0.001813 -0.093151 0.011345 -0.032912 0.022034 -0.059693 0.047377 -0.019797 -0.040414 -0.051479 0.015246 -0.099201 0.073273 -0.003777 -0.094682 -0.036199 -0.055819 -0.046335 -0.005092 -0.153332 -0.122877 0.157280 -0.105940 0.015646 -0.066006 0.036291 0.041536 0.147515 0.167523 -0.032678 -0.134009 0.268298 -0.032699 0.015211 0.101639 -0.017970 -0.123478 0.117657 -0.119809 -0.098283 -0.039389 -0.052304 0.253688 0.092691 0.037270 -0.023255 -0.037895 -0.030120 -0.080029 -0.084547 -0.051890 0.048763 0.000853 0.202340 -0.151411 0.063011 -0.035655 -0.126671 0.091758 -0.206007 -0.102318 0.154697 -0.011496 0.110975
17 -0.037523 -0.271590 0.114380 -0.042931 0.059996 -0.084850 0.155709 0.034142 0.046084 -0.007269 -0.033321 0.173065 0.071859 -0.143903 0.058857 -0.188259 -0.105700 -0.203313 -0.028164 -0.083066 0.277734 0.000164 0.127846 0.111147 0.026667 -0.074087 -0.106119 0.027489 0.027187 0.063423 -0.022335 0.123573 -0.094878 0.016508 -0.066557 -0.148364 0.103038 0.052467 0.045903 -0.064117 -0.189554 0.023748 0.147453 0.146202 -0.146924 0.160152 0.005001 -0.125120 -0.007943 0.122684 -0.118333 0.173510 0.035119 0.103985 -0.183088 -0.187394 -0.117217 0.011605 0.003381 -0.000095 0.204601 -0.117339 -0.001905 0.060278 -0.057473 0.044100 0.000578 -0.019240 0.034125 -0.150467 -0.061196 -0.004196 -0.042297 -0.109409 0.119076 -0.036555 0.165964 -0.009706 -0.102532 -0.177420 -0.132064 -0.024966 -0.021528 -0.077517 -0.171967 0.031440 0.060653 -0.049644 0.017183 0.056914 0.120102 0.077773 0.159814 -0.044900 -0.236485 0.176558 -0.047457 -0.136016 0.151786 0.111390 -0.125713 0.069550 -0.164425 -0.095433 -0.080420 -0.050487 0.220750 0.096924 -0.015507 -0.108960 -0.058921 0.029060 -0.057920 -0.049175 -0.108646 0.088511 0.018053 0.246202 -0.216986 -0.011218 -0.033299 -0.101932 0.173181 -0.264426 -0.302115 0.051811 0.048162 0.176367
19 -0.003507 -0.186181 0.126489 0.014826 0.066573 -0.043506 0.182684 -0.058880 -0.025401 -0.006148 -0.086567 0.099646 0.076799 -0.134786 -0.006251 -0.165743 -0.088643 -0.141830 -0.071998 -0.022023 0.261625 0.018109 0.209554 0.130876 -0.041607 -0.091451 -0.130839 -0.040533 -0.072940 0.096354 -0.021190 0.155125 -0.097400 -0.057964 -0.112019 -0.079994 0.134456 0.005147 -0.002913 -0.104243 -0.218549 0.147547 0.096560 0.066602 -0.042884 0.177313 -0.004853 -0.075184 -0.063143 0.106137 0.025686 0.226597 0.007205 0.077080 -0.132472 -0.135320 -0.103584 -0.006839 -0.001306 0.048260 0.132950 -0.091285 -0.038613 0.055896 -0.000824 -0.101631 0.015189 -0.031670 0.016682 -0.058437 0.049347 -0.017372 -0.039131 -0.043210 0.008952 -0.099840 0.069789 -0.001687 -0.089682 -0.030298 -0.050505 -0.046660 -0.003730 -0.150765 -0.116585 0.158142 -0.103448 0.024025 -0.069474 0.030395 0.034284 0.146115 0.163135 -0.023872 -0.125244 0.262604 -0.031848 0.016825 0.095450 -0.026561 -0.117831 0.115733 -0.113605 -0.099432 -0.040294 -0.047455 0.240610 0.086388 0.036119 -0.015419 -0.039424 -0.030978 -0.074104 -0.084052 -0.040251 0.046754 0.003574 0.193060 -0.143167 0.065074 -0.038508 -0.122876 0.082590 -0.205433 -0.095564 0.153677 -0.019377 0.102454
13 -0.024080 -0.237507 0.120794 -0.041514 0.060546 -0.073075 0.151681 0.002754 0.012747 -0.003219 -0.050173 0.140479 0.077768 -0.145777 0.040151 -0.186310 -0.102429 -0.176570 -0.030637 -0.072548 0.275692 0.012382 0.139521 0.118647 -0.004532 -0.072177 -0.096945 0.022394 0.008394 0.068929 -0.027183 0.127097 -0.105608 0.004097 -0.075988 -0.126863 0.109259 0.037344 0.042962 -0.074377 -0.184080 0.053816 0.131996 0.128504 -0.109629 0.168927 -0.007581 -0.111693 -0.025634 0.114428 -0.080467 0.177043 0.035177 0.108529 -0.181531 -0.168397 -0.107613 0.001382 -0.005760 0.017608 0.182466 -0.103721 -0.018796 0.047035 -0.036290 0.007897 0.000025 -0.026985 0.030807 -0.124780 -0.035127 -0.011140 -0.033910 -0.093712 0.087928 -0.058773 0.141944 -0.008247 -0.096169 -0.132189 -0.110457 -0.043410 -0.026864 -0.099082 -0.151673 0.068064 0.017347 -0.035067 -0.009318 0.052655 0.100457 0.088139 0.142123 -0.058881 -0.204149 0.187798 -0.053033 -0.099648 0.125016 0.072303 -0.121102 0.077636 -0.135844 -0.091453 -0.067288 -0.053959 0.222274 0.093290 -0.003143 -0.093183 -0.049662 0.008150 -0.063186 -0.047643 -0.098291 0.067569 0.008201 0.224019 -0.191467 0.003562 -0.033215 -0.093887 0.134763 -0.223502 -0.221515 0.074358 0.038281 0.143100
27 -0.005088 -0.199246 0.125640 0.008344 0.068542 -0.047828 0.188860 -0.050940 -0.029074 -0.004896 -0.084651 0.101333 0.079996 -0.136837 -0.001569 -0.177912 -0.085877 -0.150923 -0.073290 -0.035743 0.274597 0.022555 0.212368 0.138377 -0.038440 -0.098691 -0.134244 -0.032892 -0.068800 0.100994 -0.021758 0.151532 -0.103513 -0.055002 -0.109282 -0.089460 0.137524 0.005166 -0.003251 -0.111838 -0.224303 0.143634 0.099261 0.075110 -0.051672 0.185761 -0.004294 -0.076839 -0.060169 0.112101 0.021308 0.231850 0.008889 0.086401 -0.142541 -0.145502 -0.102676 -0.006638 -0.003170 0.051193 0.138056 -0.088405 -0.040927 0.052735 -0.004562 -0.091112 0.007355 -0.027774 0.017582 -0.064398 0.037960 -0.013910 -0.042330 -0.053602 0.017681 -0.099474 0.076604 -0.008925 -0.091597 -0.036817 -0.060016 -0.046639 -0.005724 -0.140804 -0.123535 0.153901 -0.094767 0.015953 -0.066875 0.034814 0.037097 0.137343 0.164414 -0.028453 -0.135126 0.262100 -0.032824 0.005481 0.104445 -0.019957 -0.127402 0.115431 -0.112295 -0.100885 -0.039924 -0.045511 0.250379 0.086968 0.033114 -0.017523 -0.037500 -0.028621 -0.078280 -0.083023 -0.047976 0.044476 0.000052 0.197929 -0.150774 0.056417 -0.040426 -0.118606 0.092418 -0.214692 -0.107837 0.153840 -0.011272 0.110992
16 -0.010753 -0.198944 0.130610 0.011672 0.070216 -0.050154 0.194683 -0.056213 -0.025650 -0.006369 -0.087035 0.110296 0.079771 -0.140672 0.002908 -0.181731 -0.095148 -0.156502 -0.079206 -0.036364 0.275306 0.023100 0.217404 0.134642 -0.037717 -0.099716 -0.133719 -0.038535 -0.068979 0.097269 -0.024146 0.162209 -0.105010 -0.056173 -0.110864 -0.086925 0.146863 0.003994 -0.004497 -0.113509 -0.231394 0.150527 0.107912 0.077092 -0.054650 0.183928 -0.003737 -0.077710 -0.064202 0.116543 0.021453 0.236280 0.011901 0.087714 -0.144755 -0.148427 -0.106006 -0.007879 -0.005183 0.046107 0.148110 -0.098416 -0.043787 0.052808 -0.004139 -0.094033 0.010434 -0.027827 0.019530 -0.070575 0.045464 -0.020961 -0.042994 -0.053619 0.025710 -0.099364 0.082141 -0.006341 -0.095091 -0.039123 -0.057068 -0.048228 -0.004062 -0.152119 -0.122733 0.160721 -0.098726 0.020558 -0.063117 0.036534 0.038857 0.147705 0.165394 -0.027556 -0.138593 0.271781 -0.031287 0.005678 0.102870 -0.020371 -0.124297 0.120204 -0.117000 -0.104550 -0.047056 -0.051797 0.251381 0.091878 0.039517 -0.020614 -0.040522 -0.023466 -0.083048 -0.080438 -0.048275 0.051755 -0.000388 0.207405 -0.151675 0.057031 -0.040360 -0.124829 0.092059 -0.219237 -0.109270 0.156331 -0.011606 0.119097
21 -0.014278 -0.196292 0.123167 0.000006 0.063983 -0.052302 0.178274 -0.047537 -0.016919 -0.003367 -0.077107 0.110584 0.079841 -0.143153 0.004797 -0.172584 -0.092336 -0.151843 -0.065457 -0.034432 0.274302 0.019813 0.200301 0.132744 -0.034209 -0.093444 -0.126677 -0.030200 -0.056560 0.093719 -0.018579 0.151582 -0.100822 -0.042816 -0.109943 -0.096120 0.134816 0.014493 0.005496 -0.100629 -0.220801 0.133408 0.103313 0.079606 -0.065624 0.181011 -0.006661 -0.081040 -0.051985 0.106957 0.006260 0.224129 0.017471 0.082832 -0.147995 -0.145069 -0.103528 -0.010490 -0.010229 0.046742 0.147134 -0.096209 -0.035403 0.059529 -0.006354 -0.078055 0.009822 -0.033550 0.019123 -0.077152 0.034395 -0.018565 -0.039398 -0.055123 0.033353 -0.090211 0.082261 -0.005973 -0.091218 -0.049821 -0.068198 -0.044971 -0.009325 -0.145441 -0.129743 0.140209 -0.083703 0.008042 -0.052220 0.034007 0.055210 0.136644 0.161835 -0.028575 -0.144414 0.249732 -0.038761 -0.006947 0.107117 -0.003740 -0.126423 0.107638 -0.122961 -0.094013 -0.042659 -0.046514 0.243532 0.089116 0.028380 -0.034672 -0.038041 -0.019482 -0.074272 -0.074738 -0.057090 0.053742 -0.001431 0.199692 -0.152364 0.053102 -0.037616 -0.120915 0.096173 -0.216763 -0.120225 0.138606 -0.003865 0.111334
18 -0.028981 -0.259545 0.121069 -0.049730 0.066394 -0.081203 0.149486 0.017162 0.020438 -0.003169 -0.046024 0.158573 0.082000 -0.148747 0.048775 -0.201033 -0.108076 -0.188069 -0.027346 -0.076032 0.293502 0.011308 0.145602 0.123851 0.007952 -0.068031 -0.100401 0.029800 0.020521 0.068524 -0.027012 0.126747 -0.108741 0.017243 -0.073116 -0.139521 0.104351 0.039093 0.051748 -0.070751 -0.191283 0.045814 0.139593 0.139900 -0.123654 0.177066 -0.012831 -0.122927 -0.017546 0.116248 -0.097762 0.172400 0.040560 0.117853 -0.193993 -0.174994 -0.109137 0.003011 -0.010463 0.015886 0.197842 -0.115066 -0.012073 0.051458 -0.043978 0.028328 0.000791 -0.026327 0.034065 -0.132268 -0.049296 -0.008193 -0.031870 -0.107434 0.104303 -0.049675 0.165774 -0.005619 -0.097351 -0.151441 -0.129671 -0.039608 -0.027631 -0.097587 -0.164479 0.060311 0.036889 -0.045708 -0.001185 0.056402 0.110603 0.082166 0.154171 -0.066240 -0.230656 0.191143 -0.060884 -0.113592 0.141048 0.087688 -0.131004 0.078203 -0.143666 -0.093112 -0.072294 -0.051516 0.224380 0.098326 -0.010180 -0.107163 -0.061353 0.011160 -0.066433 -0.051788 -0.105497 0.074062 0.013447 0.230912 -0.206456 -0.004108 -0.035823 -0.102021 0.144741 -0.243643 -0.247832 0.060483 0.041312 0.150229
22 -0.018274 -0.228854 0.118479 -0.029556 0.061613 -0.069536 0.153115 -0.006128 -0.000076 -0.007265 -0.055708 0.131861 0.079235 -0.140649 0.031975 -0.182098 -0.099299 -0.168138 -0.033299 -0.058447 0.273388 0.014148 0.159834 0.121663 -0.012081 -0.071150 -0.106242 0.005219 -0.005050 0.077252 -0.024589 0.125367 -0.106452 -0.005234 -0.083112 -0.118924 0.109163 0.024894 0.030614 -0.084043 -0.187518 0.066373 0.121345 0.118828 -0.094631 0.173397 -0.013633 -0.101722 -0.027217 0.107387 -0.060831 0.180035 0.025182 0.099489 -0.165921 -0.158094 -0.098791 0.004743 -0.007251 0.023732 0.172205 -0.098468 -0.017198 0.052567 -0.032633 -0.006923 -0.000742 -0.022898 0.028219 -0.104384 -0.020516 -0.007379 -0.034783 -0.085343 0.076299 -0.061553 0.126518 -0.004463 -0.088690 -0.110166 -0.103687 -0.043484 -0.019403 -0.108685 -0.141216 0.082800 -0.004578 -0.027609 -0.016081 0.046222 0.087258 0.095906 0.147628 -0.055859 -0.189566 0.202483 -0.049743 -0.074031 0.124006 0.051360 -0.123078 0.084450 -0.124819 -0.087425 -0.059171 -0.044993 0.221503 0.096981 0.004722 -0.074276 -0.048397 0.000308 -0.061790 -0.052391 -0.086068 0.061354 0.006517 0.209572 -0.182570 0.012585 -0.032788 -0.101883 0.122248 -0.223365 -0.192342 0.087241 0.028532 0.132273
10 -0.016036 -0.221193 0.119477 -0.012718 0.066880 -0.058004 0.173848 -0.024173 -0.001859 -0.009802 -0.064934 0.125880 0.075902 -0.138589 0.016716 -0.175032 -0.093248 -0.163130 -0.054733 -0.048340 0.277396 0.015004 0.181128 0.129963 -0.022035 -0.088443 -0.117661 -0.013724 -0.032748 0.083593 -0.023280 0.137970 -0.099335 -0.024216 -0.100461 -0.108556 0.127983 0.019350 0.014429 -0.098045 -0.211069 0.097434 0.121743 0.104454 -0.082913 0.181167 -0.002631 -0.096571 -0.037197 0.109827 -0.031874 0.209105 0.023389 0.092762 -0.162776 -0.155307 -0.102779 -0.005033 -0.010601 0.036484 0.165687 -0.100690 -0.030995 0.057733 -0.024361 -0.040757 0.002453 -0.029368 0.019494 -0.099557 0.005346 -0.013837 -0.036698 -0.071431 0.059068 -0.075822 0.108097 -0.004560 -0.097523 -0.086715 -0.092383 -0.045102 -0.013531 -0.119715 -0.138855 0.113010 -0.044045 -0.011369 -0.036834 0.039701 0.075428 0.116971 0.164231 -0.037034 -0.168292 0.229937 -0.042893 -0.049259 0.117496 0.029244 -0.126296 0.096704 -0.130590 -0.095364 -0.056630 -0.048197 0.241867 0.099101 0.014429 -0.052627 -0.043403 -0.013348 -0.067576 -0.066810 -0.070238 0.057464 0.007242 0.213006 -0.171543 0.026860 -0.037888 -0.113787 0.113454 -0.225020 -0.165288 0.113204 0.008677 0.129109
12 -0.027014 -0.230848 0.119388 -0.028027 0.060972 -0.067007 0.156351 -0.012646 0.001708 -0.003581 -0.052950 0.137480 0.075477 -0.138474 0.029511 -0.178758 -0.100759 -0.168380 -0.038405 -0.062858 0.273776 0.017659 0.162850 0.118991 -0.013831 -0.080604 -0.107687 0.004841 -0.012574 0.076515 -0.021049 0.135432 -0.105857 -0.008954 -0.083465 -0.112268 0.114875 0.030307 0.029471 -0.081428 -0.197238 0.076704 0.127028 0.113160 -0.098243 0.173730 -0.006454 -0.103008 -0.035036 0.108944 -0.056640 0.190784 0.026061 0.096395 -0.170962 -0.164377 -0.103736 0.000449 -0.008786 0.027418 0.174612 -0.100592 -0.023852 0.054837 -0.034874 -0.014563 0.004620 -0.025053 0.029430 -0.104289 -0.011139 -0.007456 -0.035735 -0.080422 0.072912 -0.065339 0.129042 -0.000520 -0.092933 -0.102613 -0.099149 -0.040099 -0.021971 -0.111732 -0.145294 0.092840 -0.013590 -0.022606 -0.023698 0.042451 0.083279 0.104820 0.151105 -0.049575 -0.185010 0.205532 -0.043901 -0.073363 0.122737 0.049681 -0.128610 0.085106 -0.132309 -0.092890 -0.060278 -0.052007 0.227509 0.094538 0.010510 -0.076175 -0.052589 -0.000831 -0.066421 -0.055241 -0.081852 0.065991 0.005252 0.216370 -0.183369 0.015366 -0.036800 -0.106831 0.123606 -0.220571 -0.194230 0.091095 0.019879 0.134237
